Language model created by QuickLM on Fri Jun  1 04:17:14 EDT 2018
Copyright (c) 1996-2010 Carnegie Mellon University and Alexander I. Rudnicky

The model is in standard ARPA format, designed by Doug Paul while he was at MITRE.

The code that was used to produce this language model is available in Open Source.
Please visit http://www.speech.cs.cmu.edu/tools/ for more information

The (fixed) discount mass is 0.5. The backoffs are computed using the ratio method.
This model based on a corpus of 35 sentences and 33 words

\data\
ngram 1=33
ngram 2=68
ngram 3=66

\1-grams:
-0.8937 </s> -0.3010
-0.8937 <s> -0.2362
-2.4378 ANTISNORE -0.2417
-2.1367 BODY -0.2946
-1.7388 DOWN -0.2417
-2.1367 FEEDBACK -0.2914
-2.4378 FLAT -0.2417
-2.1367 FOOT -0.2849
-2.4378 FOUR -0.2417
-2.1367 FULL -0.2978
-2.4378 GRAVITY -0.2962
-2.1367 HEAD -0.2849
-2.1367 INCLINE -0.2362
-2.1367 LEG -0.2849
-1.9606 LIGHT -0.2306
-1.9606 LIGHTS -0.2306
-2.1367 LOUNGE -0.2362
-2.1367 LUMBAR -0.2849
-1.9606 MASSAGE -0.2816
-2.4378 MASSAGEON -0.2417
-1.9606 OFF -0.2417
-1.9606 ON -0.2417
-2.1367 ONE -0.2417
-1.9606 PROGRAM -0.2417
-2.4378 RAVITY -0.2417
-2.1367 STOP -0.2417
-2.4378 THREE -0.2417
-2.1367 TOGGLE -0.2914
-2.1367 TWO -0.2417
-1.7388 UP -0.2417
-1.8357 WAVE -0.2914
-2.4378 ZERO -0.2994
-2.4378 ZEROG -0.2994

\2-grams:
-1.8451 <s> ANTISNORE 0.0000
-1.5441 <s> FEEDBACK 0.0000
-1.8451 <s> FLAT 0.0000
-1.5441 <s> FOOT 0.0000
-1.5441 <s> FULL 0.0000
-1.5441 <s> HEAD 0.0000
-1.5441 <s> INCLINE 0.0000
-1.5441 <s> LEG 0.0000
-1.5441 <s> LIGHT -0.1249
-1.5441 <s> LIGHTS -0.1249
-1.5441 <s> LOUNGE 0.0000
-1.5441 <s> LUMBAR 0.0000
-1.3680 <s> MASSAGE 0.0000
-1.8451 <s> MASSAGEON 0.0000
-1.8451 <s> STOP 0.0000
-1.5441 <s> TOGGLE 0.0000
-1.2430 <s> WAVE 0.0000
-1.8451 <s> ZERO 0.0000
-1.8451 <s> ZEROG 0.0000
-0.3010 ANTISNORE </s> -0.3010
-0.6021 BODY ONE 0.0000
-0.6021 BODY TWO 0.0000
-0.3010 DOWN </s> -0.3010
-0.6021 FEEDBACK OFF 0.0000
-0.6021 FEEDBACK ON 0.0000
-0.3010 FLAT </s> -0.3010
-0.6021 FOOT DOWN 0.0000
-0.6021 FOOT UP 0.0000
-0.3010 FOUR </s> -0.3010
-0.3010 FULL BODY 0.0000
-0.3010 GRAVITY PROGRAM 0.0000
-0.6021 HEAD DOWN 0.0000
-0.6021 HEAD UP 0.0000
-0.6021 INCLINE </s> -0.3010
-0.6021 INCLINE PROGRAM 0.0000
-0.6021 LEG DOWN 0.0000
-0.6021 LEG UP 0.0000
-0.7782 LIGHT </s> -0.3010
-0.7782 LIGHT OFF 0.0000
-0.7782 LIGHT ON 0.0000
-0.7782 LIGHTS </s> -0.3010
-0.7782 LIGHTS OFF 0.0000
-0.7782 LIGHTS ON 0.0000
-0.6021 LOUNGE </s> -0.3010
-0.6021 LOUNGE PROGRAM 0.0000
-0.6021 LUMBAR DOWN 0.0000
-0.6021 LUMBAR UP 0.0000
-0.7782 MASSAGE DOWN 0.0000
-0.7782 MASSAGE STOP 0.0000
-0.7782 MASSAGE UP 0.0000
-0.3010 MASSAGEON </s> -0.3010
-0.3010 OFF </s> -0.3010
-0.3010 ON </s> -0.3010
-0.3010 ONE </s> -0.3010
-0.3010 PROGRAM </s> -0.3010
-0.3010 RAVITY </s> -0.3010
-0.3010 STOP </s> -0.3010
-0.3010 THREE </s> -0.3010
-0.6021 TOGGLE LIGHT -0.2218
-0.6021 TOGGLE LIGHTS -0.2218
-0.3010 TWO </s> -0.3010
-0.3010 UP </s> -0.3010
-0.9031 WAVE FOUR 0.0000
-0.9031 WAVE ONE 0.0000
-0.9031 WAVE THREE 0.0000
-0.9031 WAVE TWO 0.0000
-0.3010 ZERO GRAVITY 0.0000
-0.3010 ZEROG RAVITY 0.0000

\3-grams:
-0.3010 <s> ANTISNORE </s>
-0.6021 <s> FEEDBACK OFF
-0.6021 <s> FEEDBACK ON
-0.3010 <s> FLAT </s>
-0.6021 <s> FOOT DOWN
-0.6021 <s> FOOT UP
-0.3010 <s> FULL BODY
-0.6021 <s> HEAD DOWN
-0.6021 <s> HEAD UP
-0.6021 <s> INCLINE </s>
-0.6021 <s> INCLINE PROGRAM
-0.6021 <s> LEG DOWN
-0.6021 <s> LEG UP
-0.6021 <s> LIGHT OFF
-0.6021 <s> LIGHT ON
-0.6021 <s> LIGHTS OFF
-0.6021 <s> LIGHTS ON
-0.6021 <s> LOUNGE </s>
-0.6021 <s> LOUNGE PROGRAM
-0.6021 <s> LUMBAR DOWN
-0.6021 <s> LUMBAR UP
-0.7782 <s> MASSAGE DOWN
-0.7782 <s> MASSAGE STOP
-0.7782 <s> MASSAGE UP
-0.3010 <s> MASSAGEON </s>
-0.3010 <s> STOP </s>
-0.6021 <s> TOGGLE LIGHT
-0.6021 <s> TOGGLE LIGHTS
-0.9031 <s> WAVE FOUR
-0.9031 <s> WAVE ONE
-0.9031 <s> WAVE THREE
-0.9031 <s> WAVE TWO
-0.3010 <s> ZERO GRAVITY
-0.3010 <s> ZEROG RAVITY
-0.3010 BODY ONE </s>
-0.3010 BODY TWO </s>
-0.3010 FEEDBACK OFF </s>
-0.3010 FEEDBACK ON </s>
-0.3010 FOOT DOWN </s>
-0.3010 FOOT UP </s>
-0.6021 FULL BODY ONE
-0.6021 FULL BODY TWO
-0.3010 GRAVITY PROGRAM </s>
-0.3010 HEAD DOWN </s>
-0.3010 HEAD UP </s>
-0.3010 INCLINE PROGRAM </s>
-0.3010 LEG DOWN </s>
-0.3010 LEG UP </s>
-0.3010 LIGHT OFF </s>
-0.3010 LIGHT ON </s>
-0.3010 LIGHTS OFF </s>
-0.3010 LIGHTS ON </s>
-0.3010 LOUNGE PROGRAM </s>
-0.3010 LUMBAR DOWN </s>
-0.3010 LUMBAR UP </s>
-0.3010 MASSAGE DOWN </s>
-0.3010 MASSAGE STOP </s>
-0.3010 MASSAGE UP </s>
-0.3010 TOGGLE LIGHT </s>
-0.3010 TOGGLE LIGHTS </s>
-0.3010 WAVE FOUR </s>
-0.3010 WAVE ONE </s>
-0.3010 WAVE THREE </s>
-0.3010 WAVE TWO </s>
-0.3010 ZERO GRAVITY PROGRAM
-0.3010 ZEROG RAVITY </s>

\end\
